date,MKT,SMB,HML,RMW,CMA
2000-01-31,0.5164159700348081,0.12479361656068005,-2.503943212135999e-16,-0.2999999999999926,0.658790413404509
2000-02-29,0.5093000564144324,0.0,1.870584172584608e-15,-0.3000000000000013,0.7906999435855683
2000-03-31,0.3423616358316245,-0.03684299486696381,-0.1936594411536717,-0.06949756397936137,0.9576383641683927
2000-04-30,0.514830527774725,-0.12193460542180637,-0.11265549351378697,-0.0654099010644065,0.7851694722252749
2000-05-31,0.46996390728358534,-8.73841540034899e-18,0.44107287235498777,0.3889632203614269,-0.3
2000-06-30,0.0962368118477489,0.2302038041510133,-0.04802696144428324,0.7440597125925511,-0.02247336714702993
2000-07-31,0.23857186062950506,0.3833956823682654,-0.3,0.2685412370465629,0.4094912199556668
2000-08-31,1.0222532246744351,0.1911907413749241,0.08655603395064074,-0.29999999999999993,-9.27331670654008e-18
2000-09-30,0.5672300947584313,-0.2999999999999998,-1.0090618797345755e-16,0.0,0.7327699052415685
2000-10-31,0.3153686786755743,0.42270882648749364,0.5619224948369322,-0.04579727264029607,-0.25420272735970384
2000-11-30,0.5421045256261646,-1.9303880867925505e-17,0.7578954743738353,-0.17364842157653726,-0.12635157842346253
2000-12-31,0.12068535905646713,0.6267678561505099,0.552546784793023,-0.09225360406934464,-0.20774639593065536
2001-01-31,0.4232086004887324,0.18057975012617297,0.6962116493850947,-0.26786266384159446,-0.0321373361584056
2001-02-28,0.3657891704836104,0.2133460115832863,-0.05031279152334739,0.04036574169317745,0.4308118677632733
2001-03-31,0.45840696153272437,0.14783337222094287,0.6937596662463328,-0.30000000000000004,0.0
2001-04-30,0.32265746978230814,0.42575106124037815,0.5071153596875461,-0.19455174612376447,-0.06097214458646782
2001-05-31,0.35349116839453193,0.37882514189226274,0.5676836897132055,-1.14044516018319e-17,-0.3
2001-06-30,0.16590105095352334,0.593280214350597,0.5288858537006486,0.0119328809952312,-0.2999999999999999
2001-07-31,0.05009442727566983,0.4895348786451313,-0.3,0.548374693445524,0.21199600063367482
2001-08-31,0.2989725502068495,0.0,1.0010274497931506,-0.19154085297794093,-0.10845914702205915
2001-09-30,0.2758582924647468,0.12323138116431924,0.9009103263709339,-0.25067298957279843,-0.049327010427201654
2001-10-31,0.1613627435134245,-0.16284585851940678,0.6041486324099595,-0.1371541414805932,0.5344886240766156
2001-11-30,0.009250326504873677,0.6008661654079149,-0.30000000000000004,0.689883508087211,1.1363624613774242e-16
2001-12-31,0.1453069894512633,0.540216197424417,0.25091886784824485,0.3635579452760751,-0.30000000000000027
2002-01-31,0.40920683615354203,0.20777766251389737,-0.3000000000000001,0.5229890958645824,0.16002640546797833
2002-02-28,0.10902712661326312,0.23129415841432205,0.9596787149724147,-0.06426167615998428,-0.23573832384001578
2002-03-31,0.2368948228206001,-0.11686111948496947,1.03258602956269,-0.18313888051503116,0.03051914761671147
2002-04-30,0.2746724995941868,0.4252443088437645,-0.30000000000000004,0.23119496984145846,0.3688882217205902
2002-05-31,0.2619326302296298,0.18452330166333739,0.36811247508469525,-0.17949556118630966,0.36492715420864713
2002-06-30,0.40130460650345234,0.08334553757346444,-0.30000000000000354,-7.861067143912458e-16,0.8153498559230857
2002-07-31,0.12084253297747982,0.07530599839913991,1.10385146862338,-0.2942349654952409,-0.005765034504759032
2002-08-31,0.0,-0.1560989497805515,-0.14390105021944866,0.0,1.3
2002-09-30,-0.021278999179753233,-0.0971653511351431,1.2999999999999996,6.366613504131636e-17,-0.1815556496851035
2002-10-31,0.0,0.5763137002960407,0.6023811168951697,0.1213051828087892,-0.2999999999999998
2002-11-30,0.49641372186219496,-0.30000000000000016,-6.91551579456301e-17,0.8035862781378057,0.0
2002-12-31,0.2338909415285514,0.29241442359922315,-0.2999999999999998,0.08916851461179987,0.6845261202604253
2003-01-31,-0.1302793969915283,4.4018258064776477e-16,1.2999999999999452,4.948298145510455e-14,-0.16972060300846745
2003-02-28,-0.11677431307727641,-0.18322568692272356,0.5143487653405523,6.295911496831701e-17,0.7856512346594479
2003-03-31,0.22975704880124156,0.06812313715631278,-0.299999999999999,0.36371609574426267,0.6384037182981818
2003-04-30,-0.3000000000000001,0.0,-3.165870343657673e-17,1.3000000000000005,0.0
2003-05-31,0.2980690350587037,0.4577347459511612,-0.300000000000001,0.30533520950968884,0.23886100948044853
2003-06-30,0.0784091801703976,0.04804572163245511,1.0818677093929279,-0.06782234174028182,-0.14050026945549884
2003-07-31,0.19582613509928642,0.23633715950044548,0.5174503877543335,0.17549059292658153,-0.1251042752806468
2003-08-31,0.4018601722198955,0.21257262459115311,-0.29999999999999993,0.3465166325351965,0.33905057065375477
2003-09-30,0.2843486922664978,0.16240996042528089,-0.29999999999999993,0.18452619432901268,0.6687151529792087
2003-10-31,0.5421614128428153,-0.30000000000000004,-1.5625216778000078e-17,0.3808122859812186,0.37702630117596625
2003-11-30,0.12525708206225744,0.18204068831492928,0.9471037874876285,-0.08880114899585179,-0.16560040886896316
2003-12-31,0.16153125344812524,0.21182841990026602,-0.07688639112361481,0.15856316631996267,0.544963551455261
2004-01-31,0.3939509397148872,0.011612534238497618,-0.11190592837697226,0.4289585777574312,0.2773838766661565
2004-02-29,0.24906292774006034,0.13528169332063233,-0.016175100027861877,0.12136882690438987,0.5104616520627793
2004-03-31,0.06639784645416674,0.020133229786799125,1.213468923759034,-0.12957579443592274,-0.17042420556407717
2004-04-30,0.5165568403768386,0.059813782245474206,-0.2999999999999998,0.5133565058486714,0.21027287152901594
2004-05-31,0.6372787040754645,0.19446011820252282,-0.25040982371333287,0.4682611777220128,-0.04959017628666716
2004-06-30,0.4520197420287248,0.0,-0.3000000000000248,0.29325204857273784,0.5547282093985517
2004-07-31,0.2705201828951615,0.636765208400705,0.0,0.3927146087041335,-0.3
2004-08-31,0.1666857001384886,-0.0069109382345594285,1.1333142998615109,-0.030587441059433264,-0.2625016207060069
2004-09-30,0.2616224712600874,-1.9720261088972037e-16,1.0383775287399124,0.0,-0.29999999999999954
2004-10-31,0.09945913491226252,0.43987546943139416,0.6756524513269436,0.08501294432939911,-0.29999999999999943
2004-11-30,0.47132940193310574,2.9474086023078853e-17,-0.2999999999999999,0.4067547435504025,0.4219158545164918
2004-12-31,0.31481850136884276,0.4332776032576937,0.12164461206352836,0.43025928330993535,-0.3
2005-01-31,0.34200275912426115,0.2306045574406315,0.47560590797869357,0.2517867754564137,-0.3
2005-02-28,0.0,0.0,1.3,5.88860961175844e-17,-0.30000000000000027
2005-03-31,0.26939451485047955,0.0,1.0306054851495206,-0.032869802684082856,-0.26713019731591714
2005-04-30,0.26725147428338264,-0.3,1.0327485257166176,-1.2468324983583301e-17,-4.3011909545099744e-17
2005-05-31,0.5516412361352626,-0.2540264291914806,0.4085613519204552,0.3397974119442816,-0.045973570808519076
2005-06-30,0.5209788912694503,0.09458415033724714,-0.29999999999999993,0.6220471225370332,0.06238983585626893
2005-07-31,0.25839785124694997,0.18209990224981332,0.7031765092599505,0.15632573724328566,-0.2999999999999999
2005-08-31,-0.19044522886149556,1.3,-0.10955477113850434,0.0,-5.8482380096058045e-18
2005-09-30,-0.0006876866318642011,0.0,1.3000000000000003,-2.280248532589178e-17,-0.29931231336813563
2005-10-31,0.4151863702032277,-0.29999999999999993,0.06528267700400525,0.2739909139058166,0.5455400388869501
2005-11-30,0.5700877707226222,2.0360596821272607e-16,0.0,0.7299122292773774,-0.30000000000000016
2005-12-31,0.509539657558405,2.5163231280557127e-17,0.27343249904963773,0.517027843391957,-0.30000000000000016
2006-01-31,9.159339953157541e-16,1.3000000000000071,-6.1547988927657116e-15,-5.5441762292218755e-15,-0.30000000000000543
2006-02-28,0.15030531958104756,0.5250964703885734,0.5310080937947536,0.09359011623562519,-0.2999999999999998
2006-03-31,-0.03786656755317354,-1.53531585969408e-17,-0.2621334324468262,-8.0052936624495e-17,1.3
2006-04-30,1.2999999999999998,0.0,1.5265566588595902e-16,3.469446951953614e-17,-0.30000000000000016
2006-05-31,0.7468507061506902,-0.17470135927696864,0.5213328370027686,0.03181645684654111,-0.12529864072303132
2006-06-30,0.46250511963241053,-0.2999999999999989,0.7059363529000406,0.13155852746754854,-4.2631464696840475e-16
2006-07-31,-0.2999999999999999,0.7338715377452791,0.566128462254721,-6.099314846588766e-17,-1.3832316783669059e-16
2006-08-31,9.831825468603701e-17,-0.30000000000000027,1.3000000000000003,0.0,0.0
2006-09-30,0.0,0.16263744736888708,-0.3000000000000035,2.3737208634598225e-16,1.137362552631113
2006-10-31,0.06349693712928724,-0.1262082129847254,-0.1737917870152742,0.18245944214357862,1.0540436207271342
2006-11-30,0.816316675492312,-0.3000000000000001,0.4273584072775019,0.05632491723018586,1.0200542498075681e-16
2006-12-31,0.7286495382367572,-0.2438558872515851,-0.030313504777356216,0.5713504617632428,-0.025830607971058562
2007-01-31,0.6056890882861542,-0.3000000000000003,0.648065827250303,0.046245084463542835,-3.0269569403079677e-17
2007-02-28,0.6084369641382493,-0.30000000000000027,5.0708474420325944e-17,1.3458506498923578e-17,0.6915630358617506
2007-03-31,-0.3000000000000001,1.2999999999999998,2.149902785748777e-17,-3.688742182285102e-17,0.0
2007-04-30,1.0306815264050195,-7.148703964942119e-17,0.0,0.2693184735949808,-0.29999999999999993
2007-05-31,1.0173776366424578,-0.29999999999999993,9.914308889374772e-17,0.2826223633575417,0.0
2007-06-30,1.0037599432133362,1.1710738715559055e-16,0.0,0.2962400567866637,-0.2999999999999999
2007-07-31,0.34687204502147306,0.5624897384037307,-0.29999999999999977,0.3906382165747958,-1.4886519344699603e-16
2007-08-31,0.15857496090765233,-5.996394414266738e-15,-0.30000000000010435,1.1414250390923655,6.813001091022716e-15
2007-09-30,-1.4090054264396384e-16,0.2250253426339455,-0.30000000000000077,1.06755398393232,0.007420673433736153
2007-10-31,-5.331721421985958e-15,0.0,-0.30000000000007704,1.3000000000001644,1.1029680316893238e-15
2007-11-30,0.44053635593901647,0.0,-0.30000000000000016,0.8594636440609844,2.4627059424945155e-16
2007-12-31,0.3785163825911294,-0.08725333481382816,-0.21274666518617105,0.9214836174088712,0.0
2008-01-31,0.44520885444530284,0.0,-0.30000000000000066,0.8547911455546973,7.20909741408135e-18
2008-02-29,-0.2999999999999999,0.2555947705040663,1.019353103421821,1.9543608182628184e-17,0.02505212607411253
2008-03-31,-0.3,4.24769206960864e-17,0.9293442524491815,0.3706557475508183,1.8507638135102853e-18
2008-04-30,-0.29999999999999977,0.5581070825073717,9.547156704545136e-17,0.27150604196244593,0.47038687553018205
2008-05-31,0.39475089185234635,-1.0596509225093385e-16,-0.30000000000000177,0.9052491081476539,0.0
2008-06-30,4.948410813835287e-17,0.8393621989893685,-0.3000000000000001,0.46063780101063134,1.2618813649166742e-16
2008-07-31,-0.2999999999999999,1.2739394110681388,1.721334201992943e-17,0.026060588931861237,-1.2444099841291828e-16
2008-08-31,-0.17232727425231376,0.5231219056186557,0.7768780943813445,-5.0866494776636886e-18,-0.12767272574768626
2008-09-30,-0.19131810870543425,0.9643911275370839,0.2841945954454969,0.051414277017419255,-0.10868189129456562
2008-10-31,-0.031008492862105226,-0.11515482105235489,1.0541398257018013,-0.15383668608553985,0.24586017429819884
2008-11-30,-0.04318006568391904,-0.13690525918364563,-0.11991467513242993,0.008764008473843711,1.2912359915261529
2008-12-31,-0.05393637730748089,-5.946647791511368e-16,-0.24606362269249327,0.06124893654343462,1.2387510634565404
2009-01-31,-0.15364597342088646,0.9404279538667712,-0.14635402657911323,0.0936400348321873,0.26593201130104144
2009-02-28,-0.1353441183408702,0.4754841994713925,-0.16465588165912629,0.6064924185134213,0.21802338201518282
2009-03-31,-0.11354314797660355,2.589675338597686e-16,-0.18645685202339676,1.2999999999999996,3.6022612074929307e-16
2009-04-30,-0.023576729676681854,0.779738440373976,0.0435229395539889,0.476738620072035,-0.2764232703233182
2009-05-31,-0.02364824425368879,0.933061721533835,0.145061111639753,0.22187716682641215,-0.27635175574631116
2009-06-30,0.29585620098077503,-0.30000000000000004,0.36067584003625774,0.6434679589829672,0.0
2009-07-31,0.35658886813487317,3.1430242768834484e-17,-0.26792514740134693,0.9434111318651268,-0.03207485259865308
2009-08-31,0.15883478054810557,0.07236219015035424,0.00797180897244612,0.1845729254206514,0.5762582949084426
2009-09-30,0.24336173977178263,-0.29999999999999993,0.2735349381309434,0.17631385934886232,0.6067894627484116
2009-10-31,0.14323713328358287,0.2636350314837081,0.13205850483473802,0.1598811021787189,0.30118822821925223
2009-11-30,0.6065997694543289,-0.2999999999999999,2.1438298015887935e-17,0.6934002305456708,1.892457951414503e-16
2009-12-31,0.5156983477210008,-0.30000000000000004,-4.568683959252882e-19,0.3979157595657429,0.3863858927132561
2010-01-31,-0.0055266418596909145,0.8187466734498454,-0.1500492024729573,0.276408450161545,0.06042072072125777
2010-02-28,-0.16277561860947734,-0.03353967280784795,1.3,-2.9536050698313787e-18,-0.1036847085826747
2010-03-31,0.3428815951391566,-0.22451600656044124,0.7158442260935864,0.2412741787672571,-0.07548399343955874
2010-04-30,0.36911852354982116,-0.13725627532125395,0.2911137045303491,0.2822306999716133,0.19479334726947053
2010-05-31,0.09244089755232301,0.22958898664671826,0.06437023727800618,0.16239553817071356,0.45120434035223905
2010-06-30,-0.02025577573848801,0.41150742178497923,-0.2797442242615115,0.34030920659094943,0.5481833716240709
2010-07-31,0.04408223167893387,3.8468848332501304e-17,-0.2999999999999999,1.0920041416601536,0.16391362666091205
2010-08-31,0.10655186198692948,0.13396204304421752,-0.2999999999999998,0.3491223423128831,0.7103637526559698
2010-09-30,-0.30000000000000093,7.782501774958277e-16,-5.070857207028042e-16,1.2999999999999998,-1.9874693445559692e-16
2010-10-31,0.06401514310579147,0.48955081656323174,-0.30000000000000004,0.6409657641123724,0.10546827621860422
2010-11-30,0.04250801789550753,0.4947892805805369,-0.2999999999999997,0.7627027015239549,1.5726246632783835e-16
2010-12-31,0.2004130410668024,0.10003871553402154,-0.2999999999999998,0.4354165078927697,0.5641317355064064
2011-01-31,0.1190153409262623,-0.08929067243712624,0.37749933215881554,0.16657323615041147,0.42620276320163697
2011-02-28,0.17415364456466406,-0.3000000000000004,0.20626507532695015,0.29605392647684164,0.6235273536315439
2011-03-31,0.1425351493973194,0.44456623950943475,0.3332119651822651,0.3420871809447573,-0.2624005350337765
2011-04-30,0.08797285617715732,0.32740179783280327,-0.29999999999999993,0.2966033668893183,0.5880219791007205
2011-05-31,0.6225390238491918,-1.3102075034718969e-16,-0.29999999999999977,0.6774609761508088,0.0
2011-06-30,0.556891854019676,3.6783083360875796e-16,-0.29999999999999977,0.7431081459803237,-1.8875503330045148e-16
2011-07-31,0.2627653832183823,0.28756451113331294,0.09902014088608113,0.6506499647622234,-0.2999999999999998
2011-08-31,-0.30000000000000027,4.357555009739854e-16,0.788752446622221,0.5112475533777759,8.192978388327933e-16
2011-09-30,-0.30000000000000004,-1.734723475976807e-17,-2.7755575615628914e-17,1.3,0.0
2011-10-31,-0.2290920413803097,-0.07090795861966188,0.0,0.2619720637298267,1.0380279362701947
2011-11-30,0.027781653213384532,0.8812897932329029,-0.13065811424746318,0.3909285535537125,-0.1693418857525368
2011-12-31,-0.3000000000000001,5.368578036772636e-18,0.0,5.204170427930421e-18,1.3000000000000003
2012-01-31,0.04228702513223203,-0.3,0.4706248870592195,0.12565403353338925,0.6614340542751591
2012-02-29,0.11346372527667689,0.7383668279352732,-0.29999999999999993,0.4481694467880498,5.0667148476922795e-17
2012-03-31,0.23615900179550792,-0.2999999999999999,0.6346263141260111,0.4292146840784809,0.0
2012-04-30,0.14504461770595467,-0.3,0.8828466217841526,0.2721087605098928,0.0
2012-05-31,0.4228248518082462,-5.706460965652221e-18,-0.2999999999999997,0.5721459418569204,0.3050292063348332
2012-06-30,-0.017722715282297487,-0.23567211216097836,-0.04660517255672185,-1.51604273550311e-16,1.299999999999999
2012-07-31,0.22122729354279036,-0.061691701227981316,0.4341034727547671,0.3920982494217201,0.014262685508703552
2012-08-31,-0.058716353155919186,-0.24128364684412051,1.2618854068942587,0.03811459310581073,3.2598714644844665e-14
2012-09-30,-0.001083181391672575,5.279584543202705e-16,1.0569048374053123,0.2430951625946866,-0.2989168186083273
2012-10-31,-0.021159135636062382,-0.062117275972754404,0.7421727219682788,0.22164832251795233,0.1194553671225858
2012-11-30,0.12906820451759168,-0.3000000000000001,0.5389981726038889,0.5328883750591853,0.09904524781933385
2012-12-31,0.23591627300768023,-0.29999999999999993,-2.7052114752934217e-18,0.3023446913498923,0.7617390356424275
2013-01-31,-0.008616740081628004,0.36614851280828564,0.47341605865485886,0.4604354285368556,-0.29138325991837194
2013-02-28,0.08235359667255845,-0.18215334200984012,0.4330648401068379,0.44336365363647157,0.2233712515939723
2013-03-31,0.13102887063010135,-0.29999999999999993,0.3014460512950085,0.3990400715683588,0.46848500650653135
2013-04-30,0.2592143308348658,-0.02178752459363535,-0.2373475638294342,0.30029623849698883,0.6996245190912149
2013-05-31,0.3368854354516595,-0.2999999999999999,0.27459632638596676,0.6885182381623736,0.0
2013-06-30,0.09527308609236437,0.003179764575943454,0.757761053470942,0.44378609586075,-0.3000000000000001
2013-07-31,-0.010580713692510041,0.3295547952197557,0.5903919434076805,0.3800532613725632,-0.2894192863074892
2013-08-31,0.35645570889079103,-0.3,0.306619189413361,0.6369251016958478,-2.099646445477641e-17
2013-09-30,0.0,0.8349139700170229,-0.30000000000343036,0.46508602998855714,0.0
2013-10-31,0.20025030796509583,0.6126200476052356,-0.3,0.48712964442966855,0.0
2013-11-30,0.0,0.0085604302200304,0.9034720114770617,0.38796755830290874,-0.30000000000000054
2013-12-31,0.15263777254518052,-0.1524281331972821,0.6512931907019919,0.38196155130878484,-0.033464381358675216
2014-01-31,0.110942762279633,0.33538752355426565,0.4525749226836254,0.40109479148247607,-0.30000000000000004
2014-02-28,0.39539306574241134,-2.0066824619341134e-16,-0.29999999999999966,0.9046069342575885,2.4146325875730977e-16
2014-03-31,0.2298536822848074,0.6920045237037153,-0.18107016253067004,0.37814179401147724,-0.11892983746932982
2014-04-30,-0.0965394213220243,-0.20346057867797557,1.1405052657635089,0.1594947342364912,1.3810187458829798e-17
2014-05-31,5.499310843960567e-17,-0.2999999999999999,1.0915054969169902,0.20849450308300982,-2.3178064127003577e-17
2014-06-30,0.06735554115832093,-0.29999999999999977,0.8384049731366354,0.39423948570504397,0.0
2014-07-31,0.06191148240091625,0.7024661423227474,0.0,0.5356223752763358,-0.29999999999999966
2014-08-31,0.0,-0.30000000000000004,5.20235562869183e-16,0.42072864777796265,0.8792713522220375
2014-09-30,0.44442338942703175,-0.17966688016543517,0.30359912191920224,0.5519774886537661,-0.1203331198345648
2014-10-31,4.705215034378382e-16,-0.29999999999999993,1.3818173831233395e-16,0.7381850330434764,0.5618149669565229
2014-11-30,0.31224424326515626,0.326692349713493,-0.08249398257600254,0.6610634070213502,-0.21750601742399692
2014-12-31,0.1242570759137337,0.025623593355411624,-0.29999999999999877,0.2780477573092065,0.8720715734216458
2015-01-31,-0.187985215689398,-0.023790628842718837,0.30567544138622255,-0.0882241554678832,0.9943245586137774
2015-02-28,-0.06111275271188302,0.5548531797046659,-0.2388872472881149,0.7451468202953363,0.0
2015-03-31,0.4957151143449988,0.0,-0.15955083312292698,0.804284885655001,-0.14044916687707282
2015-04-30,-0.07740933902622193,0.7993038988107224,-0.026530335606687654,0.5006961011892778,-0.19606032536709034
2015-05-31,0.3971675753107208,-0.08720837477347917,0.32645856308827814,0.5763738616010008,-0.21279162522652065
2015-06-30,-0.07163441693212118,0.3738673454390404,0.5179100895073401,0.4082225650536198,-0.22836558306787882
2015-07-31,0.13302084077127072,0.4956649984357173,0.054271572644104545,0.6170425881489071,-0.2999999999999998
2015-08-31,0.3577317760965895,-0.015441820100635759,-0.2845581798993649,0.9422682239034114,4.948459651483821e-16
2015-09-30,-0.3000000000000002,0.0603029134815687,0.9962663886532573,0.24343069786517402,0.0
2015-10-31,-0.06681773608822353,-0.23318226391177638,0.6509749013863123,0.006483966418166137,0.6425411321955218
2015-11-30,0.27678895572144835,-0.29999999999999993,0.2868274110531085,0.45361719524115607,0.28276643798428686
2015-12-31,-0.17466482255310078,0.7326959011340032,0.02681809436155642,0.5404860045044405,-0.1253351774468993
2016-01-31,0.35510642202231574,-0.19816438306473932,-0.1018356169352567,0.7869511297011251,0.15794244827655493
2016-02-29,-0.11296346086185897,-0.1870365391381411,0.45415027254992807,0.0,0.8458497274500721
2016-03-31,0.09079320885820616,0.12502162561847222,-0.2731667827134412,-0.02683321728655879,1.0841851655233214
2016-04-30,0.11561314369814864,0.2992711294272061,0.17712437179416776,0.32547090566043163,0.08252044942004616
2016-05-31,-0.019785975037467637,0.348924924558207,0.44008553828173425,0.31293052368130586,-0.08215501148377943
2016-06-30,0.6158876077426813,-0.043411190230482,-0.00571372720380497,0.6841123922573188,-0.2508750825657131
2016-07-31,0.36079795703356277,-6.78011757794441e-17,-0.3,0.22937031809549574,0.7098317248709415
2016-08-31,0.2386072331563434,0.45335919115330114,-0.30000000000000004,0.41819457685627337,0.18983899883408223
2016-09-30,0.0742044407720183,0.3144657152914837,0.4048092130045698,0.5065206309319278,-0.3
2016-10-31,0.15542801723192712,0.34321166049373136,0.24299342980299804,0.5583668924713436,-0.30000000000000016
2016-11-30,0.23614056218687998,-0.30000000000000004,0.8150804816593216,0.24877895615379864,0.0
2016-12-31,0.17907696704907425,0.1425895326291463,0.10023581179205242,0.34656250146878853,0.23153518706093845
2017-01-31,-0.06413695650584772,0.3229876945267933,0.5323958331195513,0.44461647235365537,-0.23586304349415224
2017-02-28,0.650660688919615,-0.3000000000000001,0.0,0.6493393110803849,-9.533017008168249e-17
2017-03-31,0.6486377067312881,1.398345516798443e-16,-0.2999999999999999,0.6513622932687119,0.0
2017-04-30,0.40520730040125386,0.18442049349896905,-0.2999999999999998,0.43076237614788554,0.2796098299518908
2017-05-31,0.2218548909121963,0.5300348772573025,0.007975597830128625,0.5401346340003728,-0.29999999999999993
2017-06-30,0.6575405186784985,-0.28506460304321146,-0.014935396956788987,0.6424594813215024,0.0
2017-07-31,0.13457886324789953,0.4581199781652083,0.11843298969868883,0.5888681688882035,-0.30000000000000004
